<?xml version="1.0"?>
<opencv_storage>
<cascade>
  <stageType>BOOST</stageType>
  <featureType>HAAR</featureType>
  <height>30</height>
  <width>30</width>
  <stageParams>
    <boostType>GAB</boostType>
    <minHitRate>9.9500000476837158e-01</minHitRate>
    <maxFalseAlarm>5.0000000000000000e-01</maxFalseAlarm>
    <weightTrimRate>9.4999999999999996e-01</weightTrimRate>
    <maxDepth>1</maxDepth>
    <maxWeakCount>100</maxWeakCount></stageParams>
  <featureParams>
    <maxCatCount>0</maxCatCount>
    <featSize>1</featSize>
    <mode>BASIC</mode></featureParams>
  <stageNum>7</stageNum>
  <stages>
    <!-- stage 0 -->
    <_>
      <maxWeakCount>4</maxWeakCount>
      <stageThreshold>-2.2668859958648682e+00</stageThreshold>
      <weakClassifiers>
        <_>
          <internalNodes>
            0 -1 7 -7.0186913013458252e-02</internalNodes>
          <leafValues>
            3.8461539149284363e-01 -9.7135800123214722e-01</leafValues></_>
        <_>
          <internalNodes>
            0 -1 2 -2.4274256080389023e-02</internalNodes>
          <leafValues>
            -2.8839478269219398e-02 -9.1088265180587769e-01</leafValues></_>
        <_>
          <internalNodes>
            0 -1 31 2.8947532176971436e-02</internalNodes>
          <leafValues>
            -7.7323806285858154e-01 1.8429206311702728e-01</leafValues></_>
        <_>
          <internalNodes>
            0 -1 24 -1.9243009388446808e-02</internalNodes>
          <leafValues>
            6.2231910228729248e-01 -4.9345028400421143e-01</leafValues></_></weakClassifiers></_>
    <!-- stage 1 -->
    <_>
      <maxWeakCount>4</maxWeakCount>
      <stageThreshold>-2.1799221038818359e+00</stageThreshold>
      <weakClassifiers>
        <_>
          <internalNodes>
            0 -1 5 -1.4296512305736542e-01</internalNodes>
          <leafValues>
            1. -9.6656835079193115e-01</leafValues></_>
        <_>
          <internalNodes>
            0 -1 28 6.3459768891334534e-02</internalNodes>
          <leafValues>
            -8.5046112537384033e-01 3.9462146162986755e-01</leafValues></_>
        <_>
          <internalNodes>
            0 -1 12 4.6535912901163101e-02</internalNodes>
          <leafValues>
            -7.7355206012725830e-01 1.9199910759925842e-01</leafValues></_>
        <_>
          <internalNodes>
            0 -1 16 1.3761284761130810e-02</internalNodes>
          <leafValues>
            -5.5489176511764526e-01 5.4255414009094238e-01</leafValues></_></weakClassifiers></_>
    <!-- stage 2 -->
    <_>
      <maxWeakCount>6</maxWeakCount>
      <stageThreshold>-1.9659069776535034e+00</stageThreshold>
      <weakClassifiers>
        <_>
          <internalNodes>
            0 -1 3 1.2307077646255493e-01</internalNodes>
          <leafValues>
            -9.6748769283294678e-01 2.5000000000000000e-01</leafValues></_>
        <_>
          <internalNodes>
            0 -1 23 -2.1090015769004822e-01</internalNodes>
          <leafValues>
            3.0755814909934998e-01 -8.3593136072158813e-01</leafValues></_>
        <_>
          <internalNodes>
            0 -1 6 2.7716333046555519e-02</internalNodes>
          <leafValues>
            -5.2677845954895020e-01 5.8143305778503418e-01</leafValues></_>
        <_>
          <internalNodes>
            0 -1 18 1.5839081606827676e-04</internalNodes>
          <leafValues>
            2.1553784608840942e-01 -1.</leafValues></_>
        <_>
          <internalNodes>
            0 -1 9 1.7152400687336922e-03</internalNodes>
          <leafValues>
            -4.9704524874687195e-01 5.0209933519363403e-01</leafValues></_>
        <_>
          <internalNodes>
            0 -1 32 2.1389918401837349e-03</internalNodes>
          <leafValues>
            -3.5334661602973938e-01 7.5826048851013184e-01</leafValues></_></weakClassifiers></_>
    <!-- stage 3 -->
    <_>
      <maxWeakCount>5</maxWeakCount>
      <stageThreshold>-1.9666848182678223e+00</stageThreshold>
      <weakClassifiers>
        <_>
          <internalNodes>
            0 -1 21 -8.3821780979633331e-02</internalNodes>
          <leafValues>
            6.0000002384185791e-01 -9.6655189990997314e-01</leafValues></_>
        <_>
          <internalNodes>
            0 -1 26 7.1884974837303162e-02</internalNodes>
          <leafValues>
            -8.3066868782043457e-01 3.1951895356178284e-01</leafValues></_>
        <_>
          <internalNodes>
            0 -1 20 -1.6447945381514728e-04</internalNodes>
          <leafValues>
            -8.9005857706069946e-01 9.3462951481342316e-02</leafValues></_>
        <_>
          <internalNodes>
            0 -1 8 -1.7884580418467522e-02</internalNodes>
          <leafValues>
            5.1571059226989746e-01 -4.9999380111694336e-01</leafValues></_>
        <_>
          <internalNodes>
            0 -1 19 1.1878307122970000e-04</internalNodes>
          <leafValues>
            2.3706664144992828e-01 -1.</leafValues></_></weakClassifiers></_>
    <!-- stage 4 -->
    <_>
      <maxWeakCount>5</maxWeakCount>
      <stageThreshold>-2.2852652072906494e+00</stageThreshold>
      <weakClassifiers>
        <_>
          <internalNodes>
            0 -1 22 -1.4195406436920166e-01</internalNodes>
          <leafValues>
            1. -9.6560198068618774e-01</leafValues></_>
        <_>
          <internalNodes>
            0 -1 25 -7.3356382548809052e-02</internalNodes>
          <leafValues>
            6.1079543828964233e-01 -8.1732130050659180e-01</leafValues></_>
        <_>
          <internalNodes>
            0 -1 15 3.6478847265243530e-02</internalNodes>
          <leafValues>
            -6.6764658689498901e-01 1.5559805929660797e-01</leafValues></_>
        <_>
          <internalNodes>
            0 -1 13 -4.7672732034698129e-04</internalNodes>
          <leafValues>
            2.3570683598518372e-01 -8.2253575325012207e-01</leafValues></_>
        <_>
          <internalNodes>
            0 -1 11 -1.4205870684236288e-04</internalNodes>
          <leafValues>
            -1. 1.6459582746028900e-01</leafValues></_></weakClassifiers></_>
    <!-- stage 5 -->
    <_>
      <maxWeakCount>5</maxWeakCount>
      <stageThreshold>-2.2242591381072998e+00</stageThreshold>
      <weakClassifiers>
        <_>
          <internalNodes>
            0 -1 4 4.4852924346923828e-01</internalNodes>
          <leafValues>
            -9.6560198068618774e-01 1.</leafValues></_>
        <_>
          <internalNodes>
            0 -1 29 2.0087743178009987e-03</internalNodes>
          <leafValues>
            -9.1918104887008667e-01 -3.5467574000358582e-01</leafValues></_>
        <_>
          <internalNodes>
            0 -1 10 2.2491849958896637e-02</internalNodes>
          <leafValues>
            -5.8844232559204102e-01 3.3386081457138062e-01</leafValues></_>
        <_>
          <internalNodes>
            0 -1 30 4.2784772813320160e-04</internalNodes>
          <leafValues>
            -6.8863511085510254e-01 2.9961502552032471e-01</leafValues></_>
        <_>
          <internalNodes>
            0 -1 14 1.6140078660100698e-03</internalNodes>
          <leafValues>
            -6.1515414714813232e-01 3.8058942556381226e-01</leafValues></_></weakClassifiers></_>
    <!-- stage 6 -->
    <_>
      <maxWeakCount>5</maxWeakCount>
      <stageThreshold>-2.2989795207977295e+00</stageThreshold>
      <weakClassifiers>
        <_>
          <internalNodes>
            0 -1 17 1.3083046674728394e-01</internalNodes>
          <leafValues>
            -9.6558505296707153e-01 5.0000000000000000e-01</leafValues></_>
        <_>
          <internalNodes>
            0 -1 27 2.6267293840646744e-02</internalNodes>
          <leafValues>
            -8.4713226556777954e-01 -1.1073374003171921e-01</leafValues></_>
        <_>
          <internalNodes>
            0 -1 1 -7.1307912468910217e-02</internalNodes>
          <leafValues>
            2.2968162596225739e-01 -6.0773456096649170e-01</leafValues></_>
        <_>
          <internalNodes>
            0 -1 33 -1.9278205581940711e-04</internalNodes>
          <leafValues>
            -9.5330023765563965e-01 1.9756534695625305e-01</leafValues></_>
        <_>
          <internalNodes>
            0 -1 0 8.4499930380843580e-05</internalNodes>
          <leafValues>
            1.8306924402713776e-01 -9.1350913047790527e-01</leafValues></_></weakClassifiers></_></stages>
  <features>
    <_>
      <rects>
        <_>
          0 0 2 1 -1.</_>
        <_>
          1 0 1 1 2.</_></rects>
      <tilted>0</tilted></_>
    <_>
      <rects>
        <_>
          0 0 9 12 -1.</_>
        <_>
          0 6 9 6 2.</_></rects>
      <tilted>0</tilted></_>
    <_>
      <rects>
        <_>
          0 0 28 1 -1.</_>
        <_>
          14 0 14 1 2.</_></rects>
      <tilted>0</tilted></_>
    <_>
      <rects>
        <_>
          0 7 8 14 -1.</_>
        <_>
          4 7 4 14 2.</_></rects>
      <tilted>0</tilted></_>
    <_>
      <rects>
        <_>
          0 7 24 18 -1.</_>
        <_>
          12 7 12 18 2.</_></rects>
      <tilted>0</tilted></_>
    <_>
      <rects>
        <_>
          1 0 4 20 -1.</_>
        <_>
          1 10 4 10 2.</_></rects>
      <tilted>0</tilted></_>
    <_>
      <rects>
        <_>
          1 3 6 18 -1.</_>
        <_>
          1 3 3 9 2.</_>
        <_>
          4 12 3 9 2.</_></rects>
      <tilted>0</tilted></_>
    <_>
      <rects>
        <_>
          2 0 2 24 -1.</_>
        <_>
          2 12 2 12 2.</_></rects>
      <tilted>0</tilted></_>
    <_>
      <rects>
        <_>
          2 0 18 4 -1.</_>
        <_>
          2 2 18 2 2.</_></rects>
      <tilted>0</tilted></_>
    <_>
      <rects>
        <_>
          2 12 2 16 -1.</_>
        <_>
          2 12 1 8 2.</_>
        <_>
          3 20 1 8 2.</_></rects>
      <tilted>0</tilted></_>
    <_>
      <rects>
        <_>
          2 19 6 11 -1.</_>
        <_>
          5 19 3 11 2.</_></rects>
      <tilted>0</tilted></_>
    <_>
      <rects>
        <_>
          3 0 3 3 -1.</_>
        <_>
          4 0 1 3 3.</_></rects>
      <tilted>0</tilted></_>
    <_>
      <rects>
        <_>
          4 1 14 24 -1.</_>
        <_>
          4 1 7 12 2.</_>
        <_>
          11 13 7 12 2.</_></rects>
      <tilted>0</tilted></_>
    <_>
      <rects>
        <_>
          7 0 2 30 -1.</_>
        <_>
          7 15 2 15 2.</_></rects>
      <tilted>0</tilted></_>
    <_>
      <rects>
        <_>
          7 0 20 2 -1.</_>
        <_>
          7 0 10 1 2.</_>
        <_>
          17 1 10 1 2.</_></rects>
      <tilted>0</tilted></_>
    <_>
      <rects>
        <_>
          7 14 15 15 -1.</_>
        <_>
          12 14 5 15 3.</_></rects>
      <tilted>0</tilted></_>
    <_>
      <rects>
        <_>
          9 0 12 8 -1.</_>
        <_>
          9 0 6 4 2.</_>
        <_>
          15 4 6 4 2.</_></rects>
      <tilted>0</tilted></_>
    <_>
      <rects>
        <_>
          9 8 14 7 -1.</_>
        <_>
          16 8 7 7 2.</_></rects>
      <tilted>0</tilted></_>
    <_>
      <rects>
        <_>
          9 12 3 3 -1.</_>
        <_>
          9 13 3 1 3.</_></rects>
      <tilted>0</tilted></_>
    <_>
      <rects>
        <_>
          9 13 2 3 -1.</_>
        <_>
          9 14 2 1 3.</_></rects>
      <tilted>0</tilted></_>
    <_>
      <rects>
        <_>
          10 12 2 3 -1.</_>
        <_>
          10 13 2 1 3.</_></rects>
      <tilted>0</tilted></_>
    <_>
      <rects>
        <_>
          14 2 12 10 -1.</_>
        <_>
          14 2 6 5 2.</_>
        <_>
          20 7 6 5 2.</_></rects>
      <tilted>0</tilted></_>
    <_>
      <rects>
        <_>
          15 0 12 14 -1.</_>
        <_>
          15 0 6 7 2.</_>
        <_>
          21 7 6 7 2.</_></rects>
      <tilted>0</tilted></_>
    <_>
      <rects>
        <_>
          15 10 15 16 -1.</_>
        <_>
          20 10 5 16 3.</_></rects>
      <tilted>0</tilted></_>
    <_>
      <rects>
        <_>
          17 5 8 12 -1.</_>
        <_>
          17 5 4 6 2.</_>
        <_>
          21 11 4 6 2.</_></rects>
      <tilted>0</tilted></_>
    <_>
      <rects>
        <_>
          20 0 4 14 -1.</_>
        <_>
          20 7 4 7 2.</_></rects>
      <tilted>0</tilted></_>
    <_>
      <rects>
        <_>
          22 0 8 16 -1.</_>
        <_>
          22 0 4 8 2.</_>
        <_>
          26 8 4 8 2.</_></rects>
      <tilted>0</tilted></_>
    <_>
      <rects>
        <_>
          22 6 6 12 -1.</_>
        <_>
          22 6 3 6 2.</_>
        <_>
          25 12 3 6 2.</_></rects>
      <tilted>0</tilted></_>
    <_>
      <rects>
        <_>
          22 9 8 9 -1.</_>
        <_>
          26 9 4 9 2.</_></rects>
      <tilted>0</tilted></_>
    <_>
      <rects>
        <_>
          23 1 2 6 -1.</_>
        <_>
          23 3 2 2 3.</_></rects>
      <tilted>0</tilted></_>
    <_>
      <rects>
        <_>
          23 24 6 4 -1.</_>
        <_>
          25 24 2 4 3.</_></rects>
      <tilted>0</tilted></_>
    <_>
      <rects>
        <_>
          24 4 3 26 -1.</_>
        <_>
          24 17 3 13 2.</_></rects>
      <tilted>0</tilted></_>
    <_>
      <rects>
        <_>
          26 0 4 1 -1.</_>
        <_>
          28 0 2 1 2.</_></rects>
      <tilted>0</tilted></_>
    <_>
      <rects>
        <_>
          27 25 3 3 -1.</_>
        <_>
          28 25 1 3 3.</_></rects>
      <tilted>0</tilted></_></features></cascade>
</opencv_storage>
